Language model created by QuickLM on Fri Sep 11 08:27:17 EDT 2015
Copyright (c) 1996-2010 Carnegie Mellon University and Alexander I. Rudnicky

The model is in standard ARPA format, designed by Doug Paul while he was at MITRE.

The code that was used to produce this language model is available in Open Source.
Please visit http://www.speech.cs.cmu.edu/tools/ for more information

The (fixed) discount mass is 0.5. The backoffs are computed using the ratio method.
This model based on a corpus of 57 sentences and 56 words

\data\
ngram 1=56
ngram 2=113
ngram 3=98

\1-grams:
-0.8876 </s> -0.3010
-0.8876 <s> -0.2339
-2.6435 ABORT -0.2408
-2.3424 BACK -0.2408
-2.1663 BACKWARD -0.2408
-2.6435 BADROMM -0.2408
-2.6435 BADROOM -0.2408
-2.3424 BATHROOM -0.2408
-2.6435 CANCEL -0.2408
-2.0414 COME -0.2849
-2.6435 CONTINUE -0.2991
-2.3424 DOWN -0.2408
-2.6435 ESPERMATOCLARSON -0.2408
-2.6435 FASTER -0.2408
-2.6435 FIND -0.2408
-2.1663 FORWARD -0.2408
-2.6435 FREEZE -0.2408
-2.6435 FULL -0.2971
-2.6435 GET -0.2408
-1.6021 GO -0.2767
-2.6435 HALF -0.2971
-2.3424 HALL -0.2408
-2.6435 HALT -0.2408
-2.3424 HELP -0.2396
-2.6435 IS -0.3000
-2.6435 IT -0.2408
-2.6435 JOHN -0.2408
-2.6435 JOSEPH -0.2408
-2.6435 KILL -0.2408
-2.3424 KITCHEN -0.2385
-1.9445 LEFT -0.2408
-2.6435 LIVING -0.2991
-2.6435 MARY -0.2408
-2.6435 ME -0.2408
-1.9445 MOVE -0.2829
-2.6435 NOW -0.2408
-2.6435 OFF -0.2408
-2.6435 PANIC -0.2408
-2.6435 PAUSE -0.2991
-2.6435 QUARTER -0.2971
-1.9445 RIGHT -0.2408
-2.3424 ROOM -0.2408
-2.3424 ROTATE -0.2910
-2.6435 SHUT -0.2991
-2.6435 SLOW -0.2991
-2.6435 SLOWER -0.2408
-2.3424 SPEECH -0.2408
-2.0414 SPEED -0.2396
-2.3424 STOP -0.2396
-2.6435 STRAIGHT -0.2408
-1.9445 THE -0.2328
-2.6435 TIME -0.3000
-1.9445 TO -0.2961
-2.1663 TURN -0.2900
-2.6435 UP -0.2408
-2.6435 WHAT -0.3000

\2-grams:
-2.0569 <s> ABORT 0.0000
-2.0569 <s> BADROOM 0.0000
-2.0569 <s> BATHROOM 0.0000
-2.0569 <s> CANCEL 0.0000
-1.4548 <s> COME 0.0000
-2.0569 <s> CONTINUE 0.0000
-2.0569 <s> ESPERMATOCLARSON 0.0000
-2.0569 <s> FASTER 0.0000
-2.0569 <s> FIND 0.0000
-2.0569 <s> FREEZE 0.0000
-2.0569 <s> FULL 0.0000
-2.0569 <s> GET 0.0000
-1.0155 <s> GO 0.0000
-2.0569 <s> HALF 0.0000
-2.0569 <s> HALL 0.0000
-2.0569 <s> HALT 0.0000
-1.7559 <s> HELP 0.0000
-2.0569 <s> JOHN 0.0000
-2.0569 <s> JOSEPH 0.0000
-2.0569 <s> KILL 0.0000
-2.0569 <s> KITCHEN -0.1761
-2.0569 <s> LIVING 0.0000
-2.0569 <s> MARY 0.0000
-1.3579 <s> MOVE 0.0000
-2.0569 <s> PANIC 0.0000
-2.0569 <s> PAUSE 0.0000
-2.0569 <s> QUARTER 0.0000
-1.7559 <s> ROTATE 0.0000
-2.0569 <s> SHUT 0.0000
-2.0569 <s> SLOW 0.0000
-2.0569 <s> SLOWER 0.0000
-2.0569 <s> SPEED -0.2430
-1.7559 <s> STOP 0.0000
-1.5798 <s> TURN 0.0000
-2.0569 <s> WHAT 0.0000
-0.3010 ABORT </s> -0.3010
-0.3010 BACK </s> -0.3010
-0.3010 BACKWARD </s> -0.3010
-0.3010 BADROMM </s> -0.3010
-0.3010 BADROOM </s> -0.3010
-0.3010 BATHROOM </s> -0.3010
-0.3010 CANCEL </s> -0.3010
-0.9031 COME BACKWARD 0.0000
-0.9031 COME FORWARD 0.0000
-0.9031 COME LEFT 0.0000
-0.9031 COME RIGHT 0.0000
-0.3010 CONTINUE SPEECH 0.0000
-0.3010 DOWN </s> -0.3010
-0.3010 ESPERMATOCLARSON </s> -0.3010
-0.3010 FASTER </s> -0.3010
-0.3010 FIND </s> -0.3010
-0.3010 FORWARD </s> -0.3010
-0.3010 FREEZE </s> -0.3010
-0.3010 FULL SPEED -0.0969
-0.3010 GET </s> -0.3010
-1.3424 GO BACK 0.0000
-1.3424 GO BACKWARD 0.0000
-1.3424 GO FORWARD 0.0000
-1.3424 GO LEFT 0.0000
-1.3424 GO RIGHT 0.0000
-1.3424 GO STRAIGHT 0.0000
-0.6435 GO TO 0.0000
-0.3010 HALF SPEED -0.0969
-0.3010 HALL </s> -0.3010
-0.3010 HALT </s> -0.3010
-0.6021 HELP </s> -0.3010
-0.6021 HELP ME 0.0000
-0.3010 IS IT 0.0000
-0.3010 IT </s> -0.3010
-0.3010 JOHN </s> -0.3010
-0.3010 JOSEPH </s> -0.3010
-0.3010 KILL </s> -0.3010
-0.6021 KITCHEN </s> -0.3010
-0.6021 KITCHEN ROOM 0.0000
-0.3010 LEFT </s> -0.3010
-0.3010 LIVING ROOM 0.0000
-0.3010 MARY </s> -0.3010
-0.3010 ME </s> -0.3010
-1.0000 MOVE BACK 0.0000
-1.0000 MOVE BACKWARD 0.0000
-1.0000 MOVE FORWARD 0.0000
-1.0000 MOVE LEFT 0.0000
-1.0000 MOVE RIGHT 0.0000
-0.3010 NOW </s> -0.3010
-0.3010 OFF </s> -0.3010
-0.3010 PANIC </s> -0.3010
-0.3010 PAUSE SPEECH 0.0000
-0.3010 QUARTER SPEED -0.0969
-0.3010 RIGHT </s> -0.3010
-0.3010 ROOM </s> -0.3010
-0.6021 ROTATE LEFT 0.0000
-0.6021 ROTATE RIGHT 0.0000
-0.3010 SHUT DOWN 0.0000
-0.3010 SLOW DOWN 0.0000
-0.3010 SLOWER </s> -0.3010
-0.3010 SPEECH </s> -0.3010
-0.4260 SPEED </s> -0.3010
-0.9031 SPEED UP 0.0000
-0.6021 STOP </s> -0.3010
-0.6021 STOP NOW 0.0000
-0.3010 STRAIGHT </s> -0.3010
-1.0000 THE </s> -0.3010
-1.0000 THE BADROMM 0.0000
-1.0000 THE BATHROOM 0.0000
-1.0000 THE HALL 0.0000
-1.0000 THE KITCHEN -0.1761
-0.3010 TIME IS 0.0000
-0.3010 TO THE 0.0000
-0.7782 TURN LEFT 0.0000
-0.7782 TURN OFF 0.0000
-0.7782 TURN RIGHT 0.0000
-0.3010 UP </s> -0.3010
-0.3010 WHAT TIME 0.0000

\3-grams:
-0.3010 <s> ABORT </s>
-0.3010 <s> BADROOM </s>
-0.3010 <s> BATHROOM </s>
-0.3010 <s> CANCEL </s>
-0.9031 <s> COME BACKWARD
-0.9031 <s> COME FORWARD
-0.9031 <s> COME LEFT
-0.9031 <s> COME RIGHT
-0.3010 <s> CONTINUE SPEECH
-0.3010 <s> ESPERMATOCLARSON </s>
-0.3010 <s> FASTER </s>
-0.3010 <s> FIND </s>
-0.3010 <s> FREEZE </s>
-0.3010 <s> FULL SPEED
-0.3010 <s> GET </s>
-1.3424 <s> GO BACK
-1.3424 <s> GO BACKWARD
-1.3424 <s> GO FORWARD
-1.3424 <s> GO LEFT
-1.3424 <s> GO RIGHT
-1.3424 <s> GO STRAIGHT
-0.6435 <s> GO TO
-0.3010 <s> HALF SPEED
-0.3010 <s> HALL </s>
-0.3010 <s> HALT </s>
-0.6021 <s> HELP </s>
-0.6021 <s> HELP ME
-0.3010 <s> JOHN </s>
-0.3010 <s> JOSEPH </s>
-0.3010 <s> KILL </s>
-0.3010 <s> KITCHEN </s>
-0.3010 <s> LIVING ROOM
-0.3010 <s> MARY </s>
-1.0000 <s> MOVE BACK
-1.0000 <s> MOVE BACKWARD
-1.0000 <s> MOVE FORWARD
-1.0000 <s> MOVE LEFT
-1.0000 <s> MOVE RIGHT
-0.3010 <s> PANIC </s>
-0.3010 <s> PAUSE SPEECH
-0.3010 <s> QUARTER SPEED
-0.6021 <s> ROTATE LEFT
-0.6021 <s> ROTATE RIGHT
-0.3010 <s> SHUT DOWN
-0.3010 <s> SLOW DOWN
-0.3010 <s> SLOWER </s>
-0.3010 <s> SPEED UP
-0.6021 <s> STOP </s>
-0.6021 <s> STOP NOW
-0.7782 <s> TURN LEFT
-0.7782 <s> TURN OFF
-0.7782 <s> TURN RIGHT
-0.3010 <s> WHAT TIME
-0.3010 COME BACKWARD </s>
-0.3010 COME FORWARD </s>
-0.3010 COME LEFT </s>
-0.3010 COME RIGHT </s>
-0.3010 CONTINUE SPEECH </s>
-0.3010 FULL SPEED </s>
-0.3010 GO BACK </s>
-0.3010 GO BACKWARD </s>
-0.3010 GO FORWARD </s>
-0.3010 GO LEFT </s>
-0.3010 GO RIGHT </s>
-0.3010 GO STRAIGHT </s>
-0.3010 GO TO THE
-0.3010 HALF SPEED </s>
-0.3010 HELP ME </s>
-0.3010 IS IT </s>
-0.3010 KITCHEN ROOM </s>
-0.3010 LIVING ROOM </s>
-0.3010 MOVE BACK </s>
-0.3010 MOVE BACKWARD </s>
-0.3010 MOVE FORWARD </s>
-0.3010 MOVE LEFT </s>
-0.3010 MOVE RIGHT </s>
-0.3010 PAUSE SPEECH </s>
-0.3010 QUARTER SPEED </s>
-0.3010 ROTATE LEFT </s>
-0.3010 ROTATE RIGHT </s>
-0.3010 SHUT DOWN </s>
-0.3010 SLOW DOWN </s>
-0.3010 SPEED UP </s>
-0.3010 STOP NOW </s>
-0.3010 THE BADROMM </s>
-0.3010 THE BATHROOM </s>
-0.3010 THE HALL </s>
-0.3010 THE KITCHEN ROOM
-0.3010 TIME IS IT
-1.0000 TO THE </s>
-1.0000 TO THE BADROMM
-1.0000 TO THE BATHROOM
-1.0000 TO THE HALL
-1.0000 TO THE KITCHEN
-0.3010 TURN LEFT </s>
-0.3010 TURN OFF </s>
-0.3010 TURN RIGHT </s>
-0.3010 WHAT TIME IS

\end\
